3.961132895881202e-05,4.739282492902195e-05,5.048052119297448e-05,3.652005137307641e-05,1.1313992399617305e-05,1.9967798875017432e-05,1.531960133279752e-05,6.54554700447338e-05,5.8498046164919694e-05,-3.748790358494556e-05,-4.1545600853837065e-05,-5.0376453950828676e-05,-2.7812594707742908e-05,-1.227356777892123e-05,-2.0756465620341402e-05,-7.392902660516992e-06,-4.7696361846367504e-05,-4.209703487538216e-05,2.1005476913540045e-05,4.920845559186739e-06,1.5544428755844365e-06,7.107909031514777e-06,5.560638747612457e-06,1.2248021016868372e-06,1.2651496708193507e-05,5.465743668477721e-06,8.320753497692705e-06,3.204191757046863,
8.971225266284201e-05,-3.063409540588066e-05,-2.3385816502752173e-05,4.799995249018253e-05,-2.9162900563510313e-05,-2.6682806270219865e-06,5.648394577269967e-05,-1.937199128380554e-05,3.931645731136255e-06,-7.264581440747312e-05,2.5563418392450916e-05,2.2311633639241937e-05,-2.9583860096138253e-05,3.092139736786183e-05,7.684612032654142e-06,-2.591334229175836e-05,1.5421251614005517e-05,-4.6524877045170075e-07,-1.9965803618485897e-05,-1.0632416245564815e-05,-1.9626399700972242e-05,-1.4035258321680133e-05,-1.8735435084034948e-05,-2.926655500871482e-05,-1.901977221980864e-05,-1.1180147854770781e-05,-1.6594727537449774e-05,-0.4878189406093504,
-3.7326794720889765e-05,3.794655695488797e-05,2.5109623728596935e-05,8.013478733912648e-06,7.584067881698582e-05,7.027333143303669e-05,8.487313761962834e-05,-5.5830950474374395e-06,-1.1951551262443037e-05,4.227902363232632e-05,-2.9754841744616866e-05,-1.9612403997341858e-05,2.7887244251771278e-06,-7.23816334188309e-05,-5.7537798422950186e-05,-3.867633006983812e-05,6.206224436904032e-06,1.2841919700801403e-05,-1.9037040235702896e-05,-9.434572562433465e-06,-1.376671366249826e-05,-1.9628837086879673e-05,-1.0531305648658528e-05,-2.5830023642319583e-05,-3.187921697127295e-05,-1.6014234246780636e-05,-2.280382479445207e-05,1.908838312275297,
2.9687625157044095e-05,8.343085545901433e-05,7.962661833902783e-05,-1.001758148894532e-05,4.817242789867968e-05,3.883285572019941e-05,3.046304820219076e-06,0.00011851559020065216,9.764645876599829e-05,-1.331555870101023e-05,-6.832613926191848e-05,-7.197295967349174e-05,1.1004593967777052e-05,-4.765426456681943e-05,-3.282575639050425e-05,8.567307184582627e-06,-8.537184234207259e-05,-6.831690803519062e-05,8.647230173885022e-06,1.2796423661073367e-05,1.2870759328935165e-05,3.215624952570966e-06,1.1863826834532605e-05,2.343031099761794e-06,-9.906320914171748e-06,1.0732272779302913e-05,1.0476227701112259e-05,5.000675466471891,
-0.00012052704926245147,4.790201448538548e-05,4.0851582062099615e-05,-1.6247154136378088e-05,4.4646537772786465e-05,4.266767299962806e-05,5.154504794948453e-06,-2.547022970857224e-05,-4.7998128559757515e-05,8.683751596806972e-05,-4.4458185191557524e-05,-4.355517796056278e-05,1.2825028020634077e-05,-4.0886462169734606e-05,-3.319268553895894e-05,-7.465893260893742e-06,1.863682906612629e-05,3.585830087577516e-05,7.012451861638889e-06,-2.7229737360381796e-06,-9.48893950372313e-06,-1.2980825834737068e-05,-2.598955575558212e-05,-3.9268025175471114e-05,-2.802810426847151e-06,-1.1239145793496607e-06,-8.523923192488411e-06,0.9408472835539017,
-5.88386764582864e-05,-4.051508614040525e-05,-6.312274901089744e-05,6.987118329853318e-06,5.569294318394079e-05,8.374749829989523e-05,-6.647452577467795e-05,2.703045777242488e-06,2.235877865553066e-05,0.000335532642389578,7.54894384461007e-05,0.00013180459216744438,5.345196523201554e-05,-2.386840422168882e-05,9.511661084070355e-06,0.00017448619499874134,1.158331616844011e-05,2.087975360760561e-05,-0.0001667779244558651,-0.00018184459961648772,-0.00014652548147203466,0.00017783899177979657,1.7870702648033765e-05,7.894627698914764e-05,-0.0001871425693398831,-0.00015478864141220148,-0.00020024265119540242,-1.198451538602143,
-0.00015662640833950654,-0.00022194025473209428,-0.00021401381706309092,-4.524674836056089e-05,-0.0002536460054081077,-0.00034511709610840664,-0.0001656625472821704,-0.0002555615611781169,-0.00032577658819603843,-1.8495021227674524e-05,0.0001551203851823959,0.00013801249054679697,-0.00010205288498841835,0.00018353666422577298,0.0001513156951012743,-3.129621806311496e-05,0.00015837022462668728,0.00018804152296765655,-0.0002727222987315092,-1.0542162099774479e-05,-0.0001909743049051878,3.9235866461566666e-05,2.758400308813172e-05,-4.9460971054581014e-05,7.5036943266565215e-06,-1.0700690853154546e-05,-6.267170050291996e-05,-15.828396272476938,
