5.402568995233956e-06, 2.8764024201829347e-05, 2.4466033067056637e-05, 3.220513191275654e-06, 5.196588047849702e-05, 4.96180365184038e-05, 3.194880026152331e-06, 3.78875414127843e-05, 4.318679625747855e-05, -4.26570801423574e-06, -2.37906069663775e-05, -2.1991533773302193e-05, -3.0602435795916683e-06, -5.177355519487165e-05, -4.719874891322737e-05, -2.0335493670775113e-06, -2.8932909158073583e-05, -3.1623491907666834e-05, 1.2054469385982532e-06, 1.4742751405551065e-07, 1.160565207070399e-06, 1.2204818739689223e-06, 2.453069553638257e-06, 3.1418378472554244e-06, 2.304681215066719e-06, 6.509112244841804e-07, 2.8453090307613875e-07, 1.8546234623420421,
8.621690324564965e-05, -2.8160003680747535e-05, -1.6864457918114926e-05, 3.621406794987555e-05, -5.2072531988669593e-05, -3.436764696058804e-05, 1.147963563270604e-05, -7.727434146545847e-06, 8.738053706684431e-06, -7.924608376324219e-05, 2.1845745590167163e-05, 1.2405586894177887e-05, -2.8237865911603282e-05, 5.080998603228155e-05, 2.929537398082296e-05, -7.1264013019791544e-06, 5.652622714067854e-06, -7.141765898175243e-06, -1.0556944762999962e-06, -2.8232343623050096e-06, -5.581301644192164e-06, -3.217904785548547e-06, -1.0294870397379574e-05, -9.20202783239861e-06, 1.519464827528819e-06, 2.806728628990919e-06, 1.9694192686502915e-06, -0.9755371013925141,
-5.635468670323004e-05, 3.669250177596207e-05, 2.4730322006226454e-05, -7.66514688807594e-06, 4.568298952646272e-05, 3.5717020108109585e-05, 4.026827287603014e-05, -4.470401221243381e-06, -2.3213368673330714e-05, 5.440140602904852e-05, -3.196593646075292e-05, -2.3381670289804694e-05, 8.868199049709121e-06, -4.56289248414974e-05, -3.218355025446918e-05, -1.821655848714158e-05, 3.245844944086399e-06, 1.7482040743925713e-05, -1.359541243415324e-05, -8.497424893463053e-06, -1.299960114568133e-05, -1.7566525406011013e-05, -1.234330339527945e-05, -2.04692864247998e-05, -1.658823543814035e-05, -1.2345758202987646e-05, -1.2525764342614315e-05, 0.9900696975040388,
-1.1969766520171402e-05, 4.1507747059368144e-05, 2.9185317315080972e-05, 2.528448103286524e-06, 7.714102107614533e-05, 7.173860583600029e-05, 9.686872905499532e-06, 7.194199877587552e-05, 8.580410982765873e-05, 1.907363568550464e-05, -3.38598369595948e-05, -2.4530444194562497e-05, -4.295985791004723e-06, -7.919443463092603e-05, -7.29291418919969e-05, -3.52630750522358e-06, -5.543577950571439e-05, -6.327414723066621e-05, -9.983843916967157e-06, -1.7723004814140607e-06, -4.239968842422819e-06, -2.2433840760585617e-07, -4.734108688367667e-06, 3.2648409558523223e-06, -1.1473732381279327e-05, -1.5336520436583874e-05, -1.3969652768529402e-05, 3.429175037090089,
-0.0001219919194604214, 8.492019440072206e-05, 5.8896610718511325e-05, -1.3429891039040786e-05, 8.89567423365546e-05, 6.605666252946428e-05, 6.863135072359139e-05, 1.4532217728496741e-06, -3.711265684572948e-05, 0.00010405684379347729, -7.703437399491323e-05, -6.07599747221347e-05, 1.0168573926366843e-05, -9.120956762476997e-05, -6.586913616824714e-05, -3.6425992084988275e-05, -2.3159075503985495e-06, 2.6266808813560044e-05, 4.346009442474158e-06, -1.4444834458495318e-05, -1.8335934769362416e-05, -1.356630643101183e-05, -1.939646946012204e-05, -2.4773694678318424e-05, 1.4785622043062012e-06, -2.2550224147334834e-05, -1.717511361860937e-05, 2.804647836866363,
-3.8623421017357695e-05, -0.0001224578134245048, -0.00011985357176151704, -4.1369774585111116e-05, -8.359699245710837e-05, -6.701403928873033e-05, -4.865704838649913e-05, -0.00010799982840188807, -9.2382281814258e-05, 3.676577634967602e-05, 0.000105604206418614, 0.00011589387380924822, 3.610765756020514e-05, 8.847010361748269e-05, 7.324091670524054e-05, 2.746552395182259e-05, 7.950194273265455e-05, 6.92682949700969e-05, -4.0445823523276925e-05, -1.259452465264139e-05, -6.269476193139862e-06, 4.028293415219717e-06, -1.1787981187539094e-05, -1.2909169058785696e-05, -2.4240443642272046e-05, -8.307556752496716e-06, -2.0933396725180906e-05, -6.50711434224093,
0.00016791483783563913, -0.0001672676381682769, -0.00014833146859045387, 9.529085217329522e-05, -0.00017909577002006964, -0.00015095932241224376, 0.00013886896310901975, -0.00016189755472141343, -9.197860330096144e-05, -0.0002023670615077242, 0.00013629225293910484, 0.00012176838569121558, -6.322471233231868e-05, 0.00018499867733101148, 0.00014371552153760023, -9.798379791565307e-05, 0.00012998484583606155, 7.751145901242431e-05, -0.0001095506322005941, -0.00016524234955403124, -0.0002594257091930902, -0.00017130798666639322, -0.00024149474484575376, -0.00030191027586327164, -6.742593086269602e-05, -9.90671134508212e-05, -0.00012922698990373364, -9.398581787184419,
-0.0005068578647167459, -0.0028010566208030697, -0.0027610415262201687, -0.0008121582159788794, -0.001778448648128933, -0.001037057867940184, -0.0011967477361367613, -0.002651000016117191, -0.0021319153169445586, 0.0007758482227462471, 0.0024583347459032233, 0.002771045299865894, 0.0007110089491165464, 0.0018351366987880429, 0.0011337610131821948, 0.0007554701653197696, 0.0018888606683669378, 0.0015450272630620106, -0.0011219046888613353, -0.0003293835100388795, 6.224570268451265e-05, 0.00015005660468587874, -0.00047128889175416725, -7.113794592515733e-05, -0.0007721431213959784, -0.00017673333440781274, -0.0005868880538825479, -166.95808863454604,