5.224236642486173e-06, 2.8438203193449453e-05, 2.432663778721993e-05, 2.0870779826669866e-06, 5.220383424444316e-05, 4.945175504805233e-05, 1.097591582630567e-06, 3.7612224611077565e-05, 4.256244655922866e-05, -4.059865034908483e-06, -2.354573104777476e-05, -2.1897756341868266e-05, -2.3044122031174896e-06, -5.2046512683290796e-05, -4.7115193314212964e-05, -9.395823795792243e-07, -2.8838453188287896e-05, -3.1287161136850215e-05, 6.394948490128026e-07, 4.708408281948826e-07, 1.5271405750325609e-06, 1.0597288685541746e-06, 2.7618455289120118e-06, 3.432199444113803e-06, 2.3009346132495244e-06, 1.4444236160302418e-06, 9.568643048377111e-07, 1.834690560984996,
8.664931193501978e-05, -2.7338686716550146e-05, -1.6255414860267554e-05, 3.8274024553939055e-05, -5.148899688414122e-05, -3.302337219871881e-05, 1.2964675086394065e-05, -6.52212908887541e-06, 1.042696399732391e-05, -7.926841181310314e-05, 2.1214115171084638e-05, 1.1944221950158605e-05, -2.9305262802768433e-05, 5.043302610898545e-05, 2.855675014259365e-05, -7.523739138665287e-06, 4.914929610570864e-06, -8.148719050550199e-06, -4.7075082835743667e-07, -3.657643089501538e-06, -6.6563676577882635e-06, -3.5335524174230633e-06, -1.1209531062331889e-05, -1.065003877099332e-05, 8.027365363095125e-07, 1.7487752713808428e-06, 8.555603395407477e-07, -0.9171486696778685,
-4.9746010989221395e-05, 3.651761431866311e-05, 2.485444116159451e-05, -3.171833656540478e-06, 4.4711526822356775e-05, 3.6538399776162425e-05, 4.4398047593995765e-05, -1.9277226682162914e-06, -1.8348001311064482e-05, 4.930061248533631e-05, -3.1697958475714586e-05, -2.335657882511498e-05, 6.600182942798269e-06, -4.435507029013228e-05, -3.2356866207752844e-05, -1.9646098233332277e-05, 1.6767453008564627e-06, 1.4362508651183157e-05, -1.3149386714053669e-05, -1.0055573692195613e-05, -1.5913202712813744e-05, -1.8507815582280575e-05, -1.4665357519572508e-05, -2.3066726929683656e-05, -1.785988738262179e-05, -1.3632815912691332e-05, -1.3925635773589192e-05, 1.0454334412362538,
0.00010035141470654898, -3.0415951273500936e-05, -1.7171616067050146e-05, 3.906085496256655e-05, -5.140073532263495e-05, -3.805177583588214e-05, 2.338148743123309e-05, -9.065356793239078e-06, 1.3335767005903232e-05, -0.00010765320315682016, 2.4636645861587464e-05, 1.1672848552319028e-05, -3.5368978732646765e-05, 5.024410433206386e-05, 3.0579421509390576e-05, -2.1229573236380194e-05, 7.797505281941152e-06, -1.0333749321101798e-05, 3.0912646096653404e-05, -1.1041149287917563e-05, -1.8032914438224338e-06, 1.497592114710669e-05, -9.321236820063803e-06, -2.5292524404769964e-07, 3.3036136113524464e-05, 2.48884266475173e-06, 2.7170268051241574e-06, -0.7336816024142061,
9.618466961129171e-05, -3.180569061580164e-05, -1.6450087059721198e-05, 4.584128626185217e-05, -5.198796642293801e-05, -3.118299030686911e-05, 1.9674557070725203e-05, -8.9428422943317e-06, 1.3578283955445948e-05, -9.260102659717627e-05, 2.7093878327988933e-05, 1.4201531506130286e-05, -4.0792433859557166e-05, 5.204451473729277e-05, 2.502530450610779e-05, -1.7151103743803155e-05, 1.019110073023403e-05, -6.349828460289371e-06, 1.8634797742266482e-06, -1.9853505123570468e-05, -2.844738959415804e-05, 4.1668811122778e-06, -2.282910174677435e-05, -5.8567028372601045e-06, 1.7740969547626462e-05, -2.017272947879904e-05, -1.8754643685915103e-05, -0.7264204944109492,
3.3699888694008794e-05, 3.304545456922977e-05, 2.5578430580143515e-05, -1.3570065429531288e-05, 0.00010128697761597375, 8.576266705705969e-05, -2.0174531367230392e-05, 0.00010499466682703034, 0.000134591816264106, -2.2068073684685794e-05, -2.5905454935193585e-05, -2.1552966966330554e-05, 1.3597429871733513e-06, -0.0001071059684380665, -9.719849870216e-05, 1.0298858342333498e-05, -8.337444499923102e-05, -0.00010272072022149669, -1.6439670421311077e-05, 1.1272801235923917e-05, 1.3589336163476479e-05, 9.7560017670972e-06, 7.509034189086814e-06, 3.140570781783269e-05, -4.708803839509746e-06, 6.862115650546445e-06, 4.5646587495996314e-06, 4.565075819012421,
-6.493993507111717e-05, 0.0001145379596196512, 8.640878424247217e-05, 3.2250354566618705e-05, 9.913288478110123e-05, 7.193743005615247e-05, 0.00016318325573568712, 6.974393221325231e-06, -2.6521409593915028e-05, 3.1805572508353094e-05, -0.00010525865372031806, -9.595215207383271e-05, -2.182648786777761e-05, -0.00010044471404696564, -7.530473143743384e-05, -9.000125471307928e-05, -7.714234514824382e-07, 2.2664292336502897e-05, 1.7897725900125418e-05, -4.701793769772674e-05, -6.887542286871026e-05, -3.559747845807739e-05, -6.772062711059649e-05, -8.187937641835862e-05, 5.116894448081748e-06, -2.424076838917224e-05, -1.839748430747322e-05, 4.47313908070907,
0.00025214064504709927, -0.00013602324272277724, -0.00018512431570563343, -0.0004469414109464262, 0.00029858760597682813, 0.0005932769848756254, 0.00014708204294414126, -1.4652910293307305e-05, 8.332805966797777e-05, 0.00038136272563373767, 0.00025227888004986635, 0.0003891591797897993, 0.0009723173624628767, -9.189862983953488e-05, -5.8832817177656504e-05, 0.0005384529827782133, 0.00018164079363590377, 0.000186174901726663, -0.00032435461049260623, -9.079274981739847e-05, 0.00016853611537358742, -0.0007099196802104622, -0.0006761073985336418, -0.0007839307006919408, -0.001518594446397705, -0.0004722660634533498, -0.0007889348077921081, 8.110139954922671,