5.129147028486387e-05,6.436955176688414e-05,6.886131659704138e-05,4.772795225761124e-05,1.2004412494327225e-05,2.2361426360973794e-05,2.2375860659463848e-05,9.458158398167706e-05,8.719938460386235e-05,-4.8922137520198256e-05,-5.655294070950901e-05,-6.883995181177609e-05,-3.702878143925456e-05,-1.3455868892503351e-05,-2.4038216323079877e-05,-1.1078475853680922e-05,-6.883254917505035e-05,-6.237613467539745e-05,2.0555250449901448e-05,8.00405458776831e-06,-3.0064148105261725e-06,6.661681690681811e-06,1.1880439407294797e-05,2.167404348287421e-06,1.3330344455633399e-05,7.759868750810414e-06,9.063525351946698e-06,4.060344977879548,
-0.00016317773533252637,-3.721049049644424e-05,-5.658901196574168e-05,-5.099715546280321e-05,3.8869469623219764e-05,5.11678520754349e-06,-1.3502627631017363e-05,-4.045075551265375e-05,-1.3711942352797576e-05,0.0001142426497925917,2.6214383807796336e-05,4.591167605971813e-05,1.567369659568647e-05,-4.4736223080636205e-05,-2.594245747709885e-05,-2.250498874375322e-05,2.0005094577509665e-05,3.3362390152790503e-07,5.870638119283572e-06,6.624034011980583e-06,7.739160477361597e-06,1.5382803974696695e-05,1.705549367276826e-05,5.391956373447491e-05,5.8408404776676675e-05,-6.793588077003675e-06,3.949787080760454e-06,-1.606400718043369,
-6.523794554698048e-06,-0.00023567182729607172,-0.00024257311442580224,-3.491321067077949e-05,-8.142193573192182e-05,-5.360026443281248e-05,3.382708287621321e-05,-0.0001995389608720039,-0.0001521693318664696,0.00011720625737150627,0.0002142902864171229,0.0002551861520204115,7.501008378923509e-05,9.830167685967624e-05,9.441715109309806e-05,4.2090924101023003e-05,0.00014780607992206867,0.00012285676568990185,-0.00010728620093939139,4.839802854726906e-05,5.584882171264299e-05,6.570562805904735e-05,-3.075493585599514e-05,3.3477366793846535e-05,-9.733150755557833e-05,-1.883999179996768e-05,-4.786927121699353e-06,-11.354983354065403,
-6.1889124151565e-05,1.3359000804278287e-05,5.448766923787548e-06,-1.3369422719799354e-05,2.9133991115713287e-05,2.9318269531063083e-05,5.670469490326635e-06,-8.285422839249186e-06,-2.3623640145664888e-05,7.491343935058717e-05,-8.477517691239795e-06,1.766988404253671e-07,2.085827960683599e-05,-2.680114007100873e-05,-2.0998264881221257e-05,9.374039287768041e-06,8.035770590176333e-06,2.119154404179378e-05,-6.337566828361552e-05,-2.1632343695991703e-05,-3.795780063631221e-05,-5.3848853188777274e-05,-3.8000672606978416e-05,-5.4197987358733066e-05,-7.313247610506644e-05,-3.0137337346332485e-05,-4.208416859750603e-05,0.695318196441933,
-3.214502517412525e-05,-0.0002622357316836534,-0.0002626586925412076,-0.0002052241327591494,-0.00044410890043199364,-0.0006138571912637778,0.00012724072464757912,-0.00035960484576646144,-0.00043459228113702233,-0.000509667833352907,0.0001630866573253043,0.00010522913668569181,4.798843396334597e-05,0.00035946385881394343,0.00032303635495708105,-0.00032809426187866764,0.0002700605075484075,0.0002593102524189029,-0.00024510581695270505,-4.860525188061263e-05,-0.0004904936078104462,-0.00041566478276146827,-0.00036755298521466896,-0.000715579277505582,0.00011011080991663079,-6.56646731353019e-05,-0.00028831831789950064,-20.194439408082044,
