5.0823383633621565e-06, 2.886360584305425e-05, 2.4538523158142923e-05, 3.206554270042308e-06, 5.2160841097664236e-05, 4.983138294074769e-05, 2.89410934580345e-06, 3.800236777692361e-05, 4.3263033802158124e-05, -3.943641939114714e-06, -2.3870006720957148e-05, -2.204517338817226e-05, -3.0342239372745873e-06, -5.195247371655981e-05, -4.735522905245757e-05, -1.862515666097203e-06, -2.9028134340615056e-05, -3.168181978514417e-05, 1.1526548096856654e-06, 1.1670908585039037e-07, 1.1184753411601303e-06, 1.1274447979626387e-06, 2.416286744661538e-06, 3.0409112245948005e-06, 2.2245314344398646e-06, 6.36884506686987e-07, 2.5252470690139035e-07, 1.8509107327099223,
8.464979691705959e-05, -2.8651069064163203e-05, -1.7341121315213275e-05, 3.579976783426732e-05, -5.305476250362423e-05, -3.52514188307805e-05, 8.937706110382419e-06, -8.139659500521737e-06, 8.042874903198187e-06, -7.807754255030995e-05, 2.2245068342300384e-05, 1.2787378976336039e-05, -2.7991471843361742e-05, 5.185044518183552e-05, 3.020696361035074e-05, -5.81090230394038e-06, 5.953708455599353e-06, -6.662249069138466e-06, -8.181875386333217e-07, -3.2958129217081704e-06, -5.8721465323713815e-06, -3.5708192635660885e-06, -1.0715452415110512e-05, -9.429874712135318e-06, 1.6228368794029605e-06, 3.1415377744703467e-06, 2.030958435585782e-06, -1.0049023902331133,
-6.0075767528479e-05, 3.704937440579457e-05, 2.49686512447638e-05, -9.589472123399763e-06, 4.55604740143137e-05, 3.465846917256843e-05, 3.750461926857584e-05, -5.24521254943618e-06, -2.5004938878753636e-05, 5.701174167963197e-05, -3.2364161021227585e-05, -2.3926086527390438e-05, 1.0230953520955162e-05, -4.551219046826112e-05, -3.14088665641107e-05, -1.6803873617496214e-05, 3.972746177380292e-06, 1.886057274065423e-05, -1.2710358595424215e-05, -9.107776274520153e-06, -1.3042195512859959e-05, -1.815164432752601e-05, -1.3080912319042481e-05, -2.0549237281727133e-05, -1.6381917410689084e-05, -1.228249440192618e-05, -1.27823340678007e-05, 0.96675608337971,
-1.3377680904838004e-05, 4.755777159301439e-05, 3.317221909699024e-05, 1.9305691788112437e-06, 8.737505943634758e-05, 8.078598355618157e-05, 1.1396855322754304e-05, 8.078342708901765e-05, 9.60842571826055e-05, 2.0957107223188176e-05, -3.8827810345156245e-05, -2.787808736466846e-05, -4.371995320415595e-06, -8.958621647462045e-05, -8.192411026701557e-05, -4.310265991334044e-06, -6.227154953175094e-05, -7.085279921409436e-05, -1.0571116428787599e-05, -3.3224096674561744e-06, -6.931393068709147e-06, -8.810458787094739e-08, -6.007697835361516e-06, 3.093449974135502e-06, -1.2222469511005694e-05, -1.6969143153089043e-05, -1.593639277169732e-05, 3.7382488598202475,
-0.00015474078420067738, 9.938527434337915e-05, 6.966820372056365e-05, -1.3503173614927879e-05, 9.528991455652214e-05, 6.50958780523276e-05, 7.087626257448295e-05, -2.5448850717874735e-06, -5.15228478843031e-05, 0.00012616542677714034, -9.287555229791128e-05, -7.664100294616665e-05, 4.650649682314004e-06, -0.00010038985597944667, -7.328153780179663e-05, -3.994075529495994e-05, -4.4092754134844976e-07, 3.511197914687871e-05, 1.2560239225273708e-05, -1.218126871549645e-05, -1.1903391428899575e-05, -7.258885818883049e-06, -1.9748958705902346e-05, -1.513114625032108e-05, 1.0856214333626828e-05, -1.9400037356437148e-05, -1.4247432456677057e-05, 3.0514891196638256,
-0.00025806721365223155, -0.00034130346744829545, -0.00034217413955913296, -0.00020476756926712998, -0.00021621690752464295, -0.00020007561400317241, -0.00028398422015149413, -0.0002935374280342944, -0.00028495163360798024, 0.00026589842558248655, 0.00029057230579016447, 0.0003334529072489108, 0.0001510084034901975, 0.0002244737813757518, 0.00021421436166971672, 0.0001662983731699603, 0.00020452087883572604, 0.00020335998268794273, -0.000151879075601035, 9.385361648099882e-05, 0.00011693610155275712, 8.433426806917562e-05, 0.00010564638651556436, 7.998574458227061e-05, -0.00010892591813305223, 5.0547353101398634e-05, 9.906313794417647e-06, -18.86725975818949,
-0.00010455584116912996, -0.002347920643798006, -0.002212181481578434, -0.0002827134915823185, -0.0019718864781897317, -0.0012835605238262929, -0.000551822495059297, -0.0020456411468507043, -0.0015496887686734498, -0.00019428431889760846, 0.0019411617353900313, 0.0020364695818358685, 0.00011227524172328357, 0.002063831417463462, 0.0013751233145577386, 0.0001433057033568119, 0.0014692847153767211, 0.0011325354199153274, 0.00028951573563498853, -0.0003873457624599055, -2.6291819709196424e-05, 0.0009602628570533251, -0.0003760341656082744, -3.8367713645397104e-05, 0.000717827821827828, -3.5769103557860254e-05, -8.254408513352366e-05, -140.04190048584454,