5.345622303850924e-06, 2.8801571756959988e-05, 2.4494312491384873e-05, 3.210872578081459e-06, 5.200500932991418e-05, 4.9615046458348404e-05, 3.254923764292204e-06, 3.786485360474943e-05, 4.314905034391765e-05, -4.248520490297848e-06, -2.384119683658419e-05, -2.2055046455180063e-05, -3.055004049600245e-06, -5.181628553616057e-05, -4.7205943107516154e-05, -2.0629533856016007e-06, -2.892462265838246e-05, -3.160349066745895e-05, 1.1274526899939042e-06, 2.4783316067300335e-07, 1.2538736591619737e-06, 1.1167113228666064e-06, 2.329744624967207e-06, 2.948432895263648e-06, 2.1331081206047254e-06, 6.798445769891473e-07, 2.9208701418803897e-07, 1.8544423374992833,
8.704243822623968e-05, -2.8207448132643233e-05, -1.6839482307019873e-05, 3.6677495491475007e-05, -5.2273487094209706e-05, -3.4524389903699954e-05, 1.208922753142218e-05, -7.805049911722578e-06, 8.824776366414096e-06, -8.013362568195498e-05, 2.1792648145424115e-05, 1.219950772677578e-05, -2.8596126802811464e-05, 5.098564823797042e-05, 2.9372641022388358e-05, -7.443519730012906e-06, 5.6746523764056255e-06, -7.239596922294851e-06, -1.3665863351844294e-06, -2.387268326736858e-06, -5.1878906578724425e-06, -3.6493638957835052e-06, -1.0865465852911278e-05, -1.0059386198698314e-05, 8.222113647463425e-07, 2.9734620868503053e-06, 2.0263002255336132e-06, -0.9641868992564676,
-3.483584528051693e-06, 3.321593680530148e-05, 2.3828280712437283e-05, 4.239932469654813e-06, 6.0603328325181525e-05, 5.6926283666528686e-05, 1.402010818581409e-06, 6.524255173973198e-05, 7.994621615994301e-05, 8.420963122566143e-06, -2.7267374185100563e-05, -2.0667939978997857e-05, -5.985414235834826e-06, -6.234464312422271e-05, -5.8819128489336684e-05, -1.1025100554788692e-07, -5.027376403531373e-05, -5.9186559497983465e-05, -8.68643365403499e-06, -1.543514077670396e-07, -1.6461256434638136e-06, -4.0397878292684767e-07, -5.20962044758388e-06, 2.936105814281801e-06, -9.904012770816015e-06, -1.0199476784502822e-05, -9.578294839465094e-06, 2.7451972483549336,
-6.325652651941806e-05, 4.9774407664391124e-05, 3.4152080531706216e-05, -2.957088363956616e-06, 6.27356886899585e-05, 5.13920817629653e-05, 5.7965144082863314e-05, -2.301917192700795e-06, -2.3472389750755888e-05, 5.9514700969801646e-05, -4.358393067957624e-05, -3.323113817018201e-05, 5.578679718606697e-06, -6.308262143552507e-05, -4.818548376720728e-05, -2.7314650897090888e-05, 1.6075544956432881e-06, 1.745286386169525e-05, -1.4540553278337385e-05, -1.0060376931062226e-05, -1.3305581504475617e-05, -2.116620243658718e-05, -1.790084639953399e-05, -2.670454998050696e-05, -2.0656888085609595e-05, -1.463317981730293e-05, -1.4882279985401938e-05, 1.7412718302284258,
-0.00011501597612706466, 5.536299013045344e-05, 2.876671141081605e-05, -0.00012070135108341686, 4.853799670702084e-05, -2.8125190289855704e-05, -7.369721159402253e-05, 0.00013349362136547393, 0.00011886227676859336, 8.525942871353339e-05, -5.497087094308238e-05, -4.024202644015274e-05, 7.095944249300788e-05, -5.691662993771316e-05, 3.748800735479646e-06, 2.4398998228242486e-05, -0.00010603891955996992, -9.3705887965825e-05, 1.3591345599024199e-05, -2.714453906089871e-06, -7.564014450442005e-06, 1.3710747657881328e-05, -7.52939491858401e-06, 1.6028136729191784e-05, 4.2684469738786985e-05, -7.313905995794471e-06, 6.860319476348958e-06, 2.7581056096928265,
-0.00011615742938138764, 0.00011525063504474121, 0.00010319904579640786, 3.339538282810773e-07, 4.8996145609122216e-05, 4.017927701866471e-05, 5.279883153699436e-05, -1.9379072517040875e-06, -3.9406551737167626e-05, 5.9002572361632016e-05, -0.00011246199869763493, -0.00011673026988975292, -6.8594603852770966e-06, -4.910583847242622e-05, -3.927492030120282e-05, -3.925541934772658e-05, -1.8038381965547304e-06, 2.5599876675970205e-05, 3.1247840326534215e-05, -3.854363454584281e-05, -5.6591766988128426e-05, -2.781323489552659e-05, -9.284647711969434e-05, -0.00010863006133954839, 2.1728937410931105e-05, -1.7246155730574114e-05, -2.066369782729001e-05, 3.014767568699215,
1.8543265508525076e-05, -7.463233796000805e-06, -1.5242219791063182e-05, -7.373531466721948e-05, 3.3010457174618946e-05, 5.058732958904648e-05, 4.999409818474898e-06, 6.338964602372478e-06, 9.831375288962598e-06, 5.2166090584354343e-05, 2.3296292929247382e-05, 3.923699485762859e-05, 0.00013535961885073638, -6.200224999754515e-06, 1.424951401371051e-05, 7.314925944926429e-05, 2.1748628741422857e-05, 2.7920148995808137e-05, -7.058257680083197e-05, -3.275450652840994e-05, -3.524942731341919e-05, -0.0001168043930316408, -9.225465955460353e-05, -0.00013295559642606305, -0.00020746593921825186, -6.606875559151994e-05, -0.00011110650107584788, 0.15959836750850553,